Weights
4
X
Y
Z
Anchor   1
    33874.0000   105361.0000        1.0000        1.0000
    37632.0000   102049.0000        1.0000        1.0000
    23427.0000   101974.0000        1.0000        1.0000
    46630.0000    98778.0000        1.0000        1.0000
    21952.0000    96409.0000        1.0000        1.0000
    42166.0000    95408.0000        1.0000        1.0000
    33933.0000    95354.0000        1.0000        1.0000
    60902.0000    93348.0000        1.0000        1.0000
    22714.0000    93076.0000        1.0000        1.0000
    68402.0000    92319.0000        1.0000        1.0000
    63172.0000    91149.0000        1.0000        1.0000
    53434.0000    91052.0000        1.0000        1.0000
    33209.0000    90903.0000        1.0000        1.0000
    65456.0000    87838.0000        1.0000        1.0000
    81960.0000    86933.0000        1.0000        1.0000
    54225.0000    86611.0000        1.0000        1.0000
    25738.0000    86417.0000        1.0000        1.0000
    83475.0000    85842.0000        1.0000        1.0000
    45988.0000    85429.0000        1.0000        1.0000
    39239.0000    85380.0000        1.0000        1.0000
    66256.0000    83399.0000        1.0000        1.0000
   -38004.0000    83148.0000        1.0000        1.0000
   -42513.0000    82067.0000        1.0000        1.0000
   -26758.0000    81974.0000        1.0000        1.0000
   -24508.0000    81964.0000        1.0000        1.0000
    19006.0000    81944.0000        1.0000        1.0000
    70784.0000    81227.0000        1.0000        1.0000
    53526.0000    81045.0000        1.0000        1.0000
   -45522.0000    80978.0000        1.0000        1.0000
     5503.0000    80804.0000        1.0000        1.0000
    84305.0000    80294.0000        1.0000        1.0000
    76801.0000    80191.0000        1.0000        1.0000
    60291.0000    79998.0000        1.0000        1.0000
   -44038.0000    78742.0000        1.0000        1.0000
   -33529.0000    78673.0000        1.0000        1.0000
    64818.0000    77822.0000        1.0000        1.0000
   -42545.0000    77619.0000        1.0000        1.0000
   -41044.0000    77608.0000        1.0000        1.0000
   -39542.0000    77598.0000        1.0000        1.0000
    68585.0000    76753.0000        1.0000        1.0000
   -29037.0000    76425.0000        1.0000        1.0000
    27284.0000    76417.0000        1.0000        1.0000
   -11016.0000    75252.0000        1.0000        1.0000
    94901.0000    74895.0000        1.0000        1.0000
   -45574.0000    74306.0000        1.0000        1.0000
   -41067.0000    74273.0000        1.0000        1.0000
   -26794.0000    74190.0000        1.0000        1.0000
   -26043.0000    74187.0000        1.0000        1.0000
    80645.0000    73570.0000        1.0000        1.0000
    71629.0000    73454.0000        1.0000        1.0000
    61111.0000    73335.0000        1.0000        1.0000
    55851.0000    73283.0000        1.0000        1.0000
   -33561.0000    73113.0000        1.0000        1.0000
    13024.0000    73032.0000        1.0000        1.0000
    55862.0000    72171.0000        1.0000        1.0000
    45341.0000    72080.0000        1.0000        1.0000
   -38077.0000    72029.0000        1.0000        1.0000
    27305.0000    71969.0000        1.0000        1.0000
    22045.0000    71947.0000        1.0000        1.0000
   -14028.0000    71922.0000        1.0000        1.0000
    -2004.0000    71906.0000        1.0000        1.0000
    60382.0000    71103.0000        1.0000        1.0000
   -42594.0000    70948.0000        1.0000        1.0000
   -28312.0000    70862.0000        1.0000        1.0000
    10774.0000    70804.0000        1.0000        1.0000
      251.0000    70794.0000        1.0000        1.0000
   -43354.0000    69841.0000        1.0000        1.0000
   -25311.0000    69736.0000        1.0000        1.0000
    16790.0000    69706.0000        1.0000        1.0000
   103261.0000    69475.0000        1.0000        1.0000
   107040.0000    68430.0000        1.0000        1.0000
    98769.0000    68285.0000        1.0000        1.0000
    93505.0000    68200.0000        1.0000        1.0000
   -84732.0000    68067.0000        1.0000        1.0000
   -64428.0000    67810.0000        1.0000        1.0000
   -42618.0000    67612.0000        1.0000        1.0000
    40111.0000    67594.0000        1.0000        1.0000
    29582.0000    67532.0000        1.0000        1.0000
   -21560.0000    67497.0000        1.0000        1.0000
   -17799.0000    67485.0000        1.0000        1.0000
   -30591.0000    66425.0000        1.0000        1.0000
    26579.0000    66406.0000        1.0000        1.0000
   -20059.0000    66380.0000        1.0000        1.0000
   101815.0000    66113.0000        1.0000        1.0000
   -92287.0000    65956.0000        1.0000        1.0000
    77743.0000    65746.0000        1.0000        1.0000
   -14797.0000    65252.0000        1.0000        1.0000
    65718.0000    64488.0000        1.0000        1.0000
   -29097.0000    64194.0000        1.0000        1.0000
    18311.0000    64151.0000        1.0000        1.0000
   111636.0000    64067.0000        1.0000        1.0000
    97339.0000    63814.0000        1.0000        1.0000
    59710.0000    63313.0000        1.0000        1.0000
   -35877.0000    63119.0000        1.0000        1.0000
    92088.0000    62617.0000        1.0000        1.0000
    84561.0000    62504.0000        1.0000        1.0000
   -71263.0000    62329.0000        1.0000        1.0000
   -31367.0000    61982.0000        1.0000        1.0000
   -26097.0000    61956.0000        1.0000        1.0000
    -6524.0000    61902.0000        1.0000        1.0000
   103398.0000    61692.0000        1.0000        1.0000
    89094.0000    61459.0000        1.0000        1.0000
   -33631.0000    60882.0000        1.0000        1.0000
    30369.0000    60865.0000        1.0000        1.0000
    77816.0000    60187.0000        1.0000        1.0000
    58991.0000    59969.0000        1.0000        1.0000
    53719.0000    59919.0000        1.0000        1.0000
    45436.0000    59849.0000        1.0000        1.0000
    73312.0000    59018.0000        1.0000        1.0000
   -61512.0000    58883.0000        1.0000        1.0000
    22095.0000    58604.0000        1.0000        1.0000
    86885.0000    58090.0000        1.0000        1.0000
    39426.0000    57582.0000        1.0000        1.0000
   -29884.0000    57526.0000        1.0000        1.0000
   -20090.0000    57484.0000        1.0000        1.0000
   -49480.0000    56546.0000        1.0000        1.0000
    24364.0000    56389.0000        1.0000        1.0000
    93700.0000    55970.0000        1.0000        1.0000
     1759.0000    55227.0000        1.0000        1.0000
    76383.0000    54608.0000        1.0000        1.0000
   -35931.0000    54224.0000        1.0000        1.0000
    84689.0000    53610.0000        1.0000        1.0000
    48503.0000    53202.0000        1.0000        1.0000
    31917.0000    53089.0000        1.0000        1.0000
   -18597.0000    53032.0000        1.0000        1.0000
    -3518.0000    53004.0000        1.0000        1.0000
    97523.0000    52695.0000        1.0000        1.0000
    54545.0000    52142.0000        1.0000        1.0000
   -43485.0000    52051.0000        1.0000        1.0000
    87738.0000    51430.0000        1.0000        1.0000
    53046.0000    51017.0000        1.0000        1.0000
    28158.0000    50846.0000        1.0000        1.0000
    19861.0000    50812.0000        1.0000        1.0000
    58337.0000    49954.0000        1.0000        1.0000
    45513.0000    49842.0000        1.0000        1.0000
   -75197.0000    49033.0000        1.0000        1.0000
    71928.0000    48992.0000        1.0000        1.0000
    66647.0000    48930.0000        1.0000        1.0000
   -61617.0000    48876.0000        1.0000        1.0000
   -47282.0000    48744.0000        1.0000        1.0000
    31941.0000    48641.0000        1.0000        1.0000
    12324.0000    48568.0000        1.0000        1.0000
   -88794.0000    48109.0000        1.0000        1.0000
   -28425.0000    47511.0000        1.0000        1.0000
     4779.0000    47445.0000        1.0000        1.0000
    88559.0000    46994.0000        1.0000        1.0000
    85540.0000    46949.0000        1.0000        1.0000
   -49564.0000    46539.0000        1.0000        1.0000
   -45799.0000    45396.0000        1.0000        1.0000
    44793.0000    45389.0000        1.0000        1.0000
    26674.0000    45279.0000        1.0000        1.0000
    99917.0000    44950.0000        1.0000        1.0000
    50086.0000    44319.0000        1.0000        1.0000
   -24666.0000    44159.0000        1.0000        1.0000
    38768.0000    43122.0000        1.0000        1.0000
    31216.0000    43078.0000        1.0000        1.0000
     1762.0000    41883.0000        1.0000        1.0000
    87887.0000    41423.0000        1.0000        1.0000
   -35257.0000    40876.0000        1.0000        1.0000
    99992.0000    40503.0000        1.0000        1.0000
    81859.0000    40225.0000        1.0000        1.0000
    59947.0000    39962.0000        1.0000        1.0000
    52391.0000    39891.0000        1.0000        1.0000
   -11083.0000    39670.0000        1.0000        1.0000
   -82882.0000    39127.0000        1.0000        1.0000
    29728.0000    38622.0000        1.0000        1.0000
    26705.0000    38608.0000        1.0000        1.0000
    21414.0000    38586.0000        1.0000        1.0000
    64505.0000    37786.0000        1.0000        1.0000
    55434.0000    37694.0000        1.0000        1.0000
   -88961.0000    36991.0000        1.0000        1.0000
    46372.0000    36505.0000        1.0000        1.0000
   -27723.0000    36388.0000        1.0000        1.0000
   -72356.0000    34541.0000        1.0000        1.0000
    55465.0000    34359.0000        1.0000        1.0000
   -52692.0000    34334.0000        1.0000        1.0000
    31263.0000    34182.0000        1.0000        1.0000
     1765.0000    34100.0000        1.0000        1.0000
   -83716.0000    33578.0000        1.0000        1.0000
    69848.0000    33399.0000        1.0000        1.0000
   -68588.0000    33384.0000        1.0000        1.0000
    44129.0000    33152.0000        1.0000        1.0000
   -42112.0000    33137.0000        1.0000        1.0000
    39590.0000    33120.0000        1.0000        1.0000
   100124.0000    32720.0000        1.0000        1.0000
    74401.0000    32342.0000        1.0000        1.0000
    46407.0000    32057.0000        1.0000        1.0000
   -24717.0000    31927.0000        1.0000        1.0000
    56253.0000    31030.0000        1.0000        1.0000
    28253.0000    30831.0000        1.0000        1.0000
    49452.0000    29858.0000        1.0000        1.0000
  -103460.0000    29441.0000        1.0000        1.0000
    41899.0000    27576.0000        1.0000        1.0000
    35084.0000    27532.0000        1.0000        1.0000
   -23978.0000    27477.0000        1.0000        1.0000
    20697.0000    27464.0000        1.0000        1.0000
  -110314.0000    27340.0000        1.0000        1.0000
   -42159.0000    26466.0000        1.0000        1.0000
   -33071.0000    26408.0000        1.0000        1.0000
  -107305.0000    26173.0000        1.0000        1.0000
   -89885.0000    25884.0000        1.0000        1.0000
   -18685.0000    25234.0000        1.0000        1.0000
    96467.0000    24875.0000        1.0000        1.0000
    68438.0000    24486.0000        1.0000        1.0000
   -27780.0000    24157.0000        1.0000        1.0000
   -23234.0000    24138.0000        1.0000        1.0000
   -67188.0000    23360.0000        1.0000        1.0000
    63147.0000    23316.0000        1.0000        1.0000
    46477.0000    23162.0000        1.0000        1.0000
   -12630.0000    22994.0000        1.0000        1.0000
    10104.0000    22989.0000        1.0000        1.0000
   -96756.0000    22655.0000        1.0000        1.0000
   101069.0000    21615.0000        1.0000        1.0000
   -20973.0000    20793.0000        1.0000        1.0000
  -109680.0000    20655.0000        1.0000        1.0000
   -62677.0000    19974.0000        1.0000        1.0000
    47261.0000    19832.0000        1.0000        1.0000
    35888.0000    19752.0000        1.0000        1.0000
   -24768.0000    19696.0000        1.0000        1.0000
   -17186.0000    19669.0000        1.0000        1.0000
   -92261.0000    19247.0000        1.0000        1.0000
    16178.0000    18554.0000        1.0000        1.0000
     4803.0000    18534.0000        1.0000        1.0000
   111743.0000    18469.0000        1.0000        1.0000
    89751.0000    18097.0000        1.0000        1.0000
   -83936.0000    18012.0000        1.0000        1.0000
   -75594.0000    17901.0000        1.0000        1.0000
  -118084.0000    17479.0000        1.0000        1.0000
    -7332.0000    17425.0000        1.0000        1.0000
   114798.0000    17415.0000        1.0000        1.0000
    45012.0000    16479.0000        1.0000        1.0000
     6322.0000    16312.0000        1.0000        1.0000
    13152.0000    15211.0000        1.0000        1.0000
   105735.0000    15023.0000        1.0000        1.0000
  -103712.0000    14987.0000        1.0000        1.0000
    50350.0000    13186.0000        1.0000        1.0000
    63265.0000    12196.0000        1.0000        1.0000
   -28596.0000    11929.0000        1.0000        1.0000
   -79475.0000    11279.0000        1.0000        1.0000
   -56696.0000    11018.0000        1.0000        1.0000
    76199.0000    10123.0000        1.0000        1.0000
  -121276.0000     9758.0000        1.0000        1.0000
    96720.0000     9309.0000        1.0000        1.0000
   -70390.0000     8940.0000        1.0000        1.0000
   -39247.0000     8654.0000        1.0000        1.0000
    29878.0000     8600.0000        1.0000        1.0000
  -116742.0000     8555.0000        1.0000        1.0000
   -17218.0000     8550.0000        1.0000        1.0000
    56485.0000     6568.0000        1.0000        1.0000
   -50660.0000     6516.0000        1.0000        1.0000
   -11145.0000     6311.0000        1.0000        1.0000
     6333.0000     6304.0000        1.0000        1.0000
   -85629.0000     5803.0000        1.0000        1.0000
    61816.0000     5509.0000        1.0000        1.0000
   131778.0000     4419.0000        1.0000        1.0000
    46624.0000     4259.0000        1.0000        1.0000
    35222.0000     4181.0000        1.0000        1.0000
   -78818.0000     3485.0000        1.0000        1.0000
   -20275.0000     3000.0000        1.0000        1.0000
   103672.0000     2753.0000        1.0000        1.0000
  -120674.0000     1960.0000        1.0000        1.0000
   125007.0000      937.0000        1.0000        1.0000
    94583.0000      378.0000        1.0000        1.0000
    84694.0000      230.0000        1.0000        1.0000
  -129848.0000      -72.0000        1.0000        1.0000
   109815.0000     -474.0000        1.0000        1.0000
   -93332.0000     -754.0000        1.0000        1.0000
   -62900.0000    -1152.0000        1.0000        1.0000
   128096.0000    -1222.0000        1.0000        1.0000
   -45400.0000    -1310.0000        1.0000        1.0000
    18515.0000    -1454.0000        1.0000        1.0000
      254.0000    -1483.0000        1.0000        1.0000
   161600.0000    -1523.0000        1.0000        1.0000
   -93350.0000    -1866.0000        1.0000        1.0000
    72550.0000    -2154.0000        1.0000        1.0000
   -52257.0000    -2366.0000        1.0000        1.0000
  -125353.0000    -3505.0000        1.0000        1.0000
   -33999.0000    -3610.0000        1.0000        1.0000
     8627.0000    -3700.0000        1.0000        1.0000
  -115480.0000    -4816.0000        1.0000        1.0000
     -508.0000    -4818.0000        1.0000        1.0000
   115226.0000    -4821.0000        1.0000        1.0000
   130476.0000    -5620.0000        1.0000        1.0000
  -127684.0000    -5680.0000        1.0000        1.0000
    95450.0000    -6281.0000        1.0000        1.0000
   -79712.0000    -6511.0000        1.0000        1.0000
    79458.0000    -6515.0000        1.0000        1.0000
    41380.0000    -6899.0000        1.0000        1.0000
   145757.0000    -7492.0000        1.0000        1.0000
   -54591.0000    -7906.0000        1.0000        1.0000
  -124685.0000    -7968.0000        1.0000        1.0000
   -41642.0000    -8010.0000        1.0000        1.0000
   -69838.0000    -8859.0000        1.0000        1.0000
    67298.0000    -8888.0000        1.0000        1.0000
    62727.0000    -8938.0000        1.0000        1.0000
  -123184.0000    -9111.0000        1.0000        1.0000
    -8127.0000    -9261.0000        1.0000        1.0000
   -49277.0000   -10175.0000        1.0000        1.0000
    13971.0000   -10362.0000        1.0000        1.0000
  -113301.0000   -10418.0000        1.0000        1.0000
  -108729.0000   -10503.0000        1.0000        1.0000
   -66815.0000   -11118.0000        1.0000        1.0000
     1778.0000   -11490.0000        1.0000        1.0000
   106209.0000   -11660.0000        1.0000        1.0000
  -136211.0000   -12166.0000        1.0000        1.0000
   122236.0000   -12467.0000        1.0000        1.0000
   146655.0000   -13031.0000        1.0000        1.0000
    76497.0000   -13226.0000        1.0000        1.0000
    52863.0000   -13481.0000        1.0000        1.0000
  -124038.0000   -13542.0000        1.0000        1.0000
  -119464.0000   -13635.0000        1.0000        1.0000
  -108027.0000   -13852.0000        1.0000        1.0000
    97099.0000   -14039.0000        1.0000        1.0000
   -93540.0000   -14096.0000        1.0000        1.0000
   -40170.0000   -15803.0000        1.0000        1.0000
   -22628.0000   -15895.0000        1.0000        1.0000
   113152.0000   -15982.0000        1.0000        1.0000
    87981.0000   -16404.0000        1.0000        1.0000
  -143939.0000   -16435.0000        1.0000        1.0000
    46026.0000   -16873.0000        1.0000        1.0000
   116224.0000   -17036.0000        1.0000        1.0000
   107070.0000   -17206.0000        1.0000        1.0000
  -104273.0000   -17256.0000        1.0000        1.0000
   154392.0000   -17287.0000        1.0000        1.0000
   -37133.0000   -18047.0000        1.0000        1.0000
    32301.0000   -18075.0000        1.0000        1.0000
   160524.0000   -18238.0000        1.0000        1.0000
   -83690.0000   -18690.0000        1.0000        1.0000
    71226.0000   -18851.0000        1.0000        1.0000
   -47061.0000   -19089.0000        1.0000        1.0000
     9412.0000   -19266.0000        1.0000        1.0000
   -74547.0000   -19922.0000        1.0000        1.0000
    34603.0000   -20286.0000        1.0000        1.0000
    25443.0000   -20332.0000        1.0000        1.0000
  -117307.0000   -20351.0000        1.0000        1.0000
   120891.0000   -21392.0000        1.0000        1.0000
   -59304.0000   -22317.0000        1.0000        1.0000
    33088.0000   -22518.0000        1.0000        1.0000
    -8908.0000   -22603.0000        1.0000        1.0000
  -111242.0000   -22691.0000        1.0000        1.0000
    77388.0000   -23223.0000        1.0000        1.0000
   172891.0000   -23457.0000        1.0000        1.0000
  -126536.0000   -23500.0000        1.0000        1.0000
  -148708.0000   -24105.0000        1.0000        1.0000
   -80712.0000   -24291.0000        1.0000        1.0000
   -67728.0000   -24452.0000        1.0000        1.0000
   109500.0000   -24948.0000        1.0000        1.0000
   -19610.0000   -25914.0000        1.0000        1.0000
    95768.0000   -26294.0000        1.0000        1.0000
   -39481.0000   -26928.0000        1.0000        1.0000
   -34132.0000   -26960.0000        1.0000        1.0000
   -15792.0000   -27037.0000        1.0000        1.0000
   -94512.0000   -27426.0000        1.0000        1.0000
    72860.0000   -27727.0000        1.0000        1.0000
    12486.0000   -29268.0000        1.0000        1.0000
  -153432.0000   -29548.0000        1.0000        1.0000
   -21153.0000   -30356.0000        1.0000        1.0000
    88193.0000   -30859.0000        1.0000        1.0000
   -87683.0000   -30866.0000        1.0000        1.0000
  -140463.0000   -30977.0000        1.0000        1.0000
   -60921.0000   -31197.0000        1.0000        1.0000
   131057.0000   -32302.0000        1.0000        1.0000
  -116780.0000   -32596.0000        1.0000        1.0000
    14022.0000   -32601.0000        1.0000        1.0000
    59158.0000   -33438.0000        1.0000        1.0000
  -128276.0000   -33474.0000        1.0000        1.0000
    33150.0000   -33638.0000        1.0000        1.0000
    98187.0000   -34040.0000        1.0000        1.0000
   -96147.0000   -34073.0000        1.0000        1.0000
    78296.0000   -34332.0000        1.0000        1.0000
    39277.0000   -34713.0000        1.0000        1.0000
  -114528.0000   -34864.0000        1.0000        1.0000
  -109172.0000   -34963.0000        1.0000        1.0000
  -145922.0000   -35296.0000        1.0000        1.0000
   -48722.0000   -35756.0000        1.0000        1.0000
    10969.0000   -35943.0000        1.0000        1.0000
  -109192.0000   -36075.0000        1.0000        1.0000
   132684.0000   -36715.0000        1.0000        1.0000
   -38015.0000   -36945.0000        1.0000        1.0000
   -46443.0000   -37998.0000        1.0000        1.0000
   -78609.0000   -38776.0000        1.0000        1.0000
    47728.0000   -39100.0000        1.0000        1.0000
   113592.0000   -39330.0000        1.0000        1.0000
  -159812.0000   -39393.0000        1.0000        1.0000
  -101596.0000   -39544.0000        1.0000        1.0000
    78368.0000   -39891.0000        1.0000        1.0000
   105188.0000   -40595.0000        1.0000        1.0000
   -93956.0000   -40780.0000        1.0000        1.0000
   138143.0000   -41041.0000        1.0000        1.0000
   -50299.0000   -41303.0000        1.0000        1.0000
  -158368.0000   -42768.0000        1.0000        1.0000
   -97055.0000   -42955.0000        1.0000        1.0000
   -68707.0000   -43345.0000        1.0000        1.0000
   122870.0000   -43597.0000        1.0000        1.0000
   -64887.0000   -44499.0000        1.0000        1.0000
   126724.0000   -44629.0000        1.0000        1.0000
   142077.0000   -45399.0000        1.0000        1.0000
  -153090.0000   -46242.0000        1.0000        1.0000
  -148491.0000   -46357.0000        1.0000        1.0000
   -27345.0000   -47010.0000        1.0000        1.0000
   -81792.0000   -47630.0000        1.0000        1.0000
    -2045.0000   -48184.0000        1.0000        1.0000
    81551.0000   -48745.0000        1.0000        1.0000
    -2812.0000   -49296.0000        1.0000        1.0000
   114546.0000   -49321.0000        1.0000        1.0000
   143715.0000   -49810.0000        1.0000        1.0000
   -68015.0000   -50025.0000        1.0000        1.0000
   -41935.0000   -50262.0000        1.0000        1.0000
   -84906.0000   -50923.0000        1.0000        1.0000
     1790.0000   -51520.0000        1.0000        1.0000
   145302.0000   -51996.0000        1.0000        1.0000
    61646.0000   -52317.0000        1.0000        1.0000
   -78030.0000   -53240.0000        1.0000        1.0000
   105420.0000   -53936.0000        1.0000        1.0000
    49386.0000   -54654.0000        1.0000        1.0000
   -95716.0000   -55210.0000        1.0000        1.0000
   -42749.0000   -56929.0000        1.0000        1.0000
    33278.0000   -56988.0000        1.0000        1.0000
    24830.0000   -57029.0000        1.0000        1.0000
   -13567.0000   -57065.0000        1.0000        1.0000
   -51974.0000   -57968.0000        1.0000        1.0000
    74004.0000   -58851.0000        1.0000        1.0000
   -25096.0000   -59252.0000        1.0000        1.0000
   -49688.0000   -60211.0000        1.0000        1.0000
   150921.0000   -61870.0000        1.0000        1.0000
   -85061.0000   -62042.0000        1.0000        1.0000
  -156586.0000   -62838.0000        1.0000        1.0000
   -82771.0000   -63186.0000        1.0000        1.0000
  -146620.0000   -64200.0000        1.0000        1.0000
   -88936.0000   -64210.0000        1.0000        1.0000
    75610.0000   -64391.0000        1.0000        1.0000
  -101256.0000   -65129.0000        1.0000        1.0000
   -22047.0000   -65935.0000        1.0000        1.0000
   -63599.0000   -67865.0000        1.0000        1.0000
  -159806.0000   -68316.0000        1.0000        1.0000
    47974.0000   -70233.0000        1.0000        1.0000
    36429.0000   -70314.0000        1.0000        1.0000
   -25141.0000   -70371.0000        1.0000        1.0000
    -8209.0000   -70417.0000        1.0000        1.0000
   -69022.0000   -71142.0000        1.0000        1.0000
    64917.0000   -71188.0000        1.0000        1.0000
   -59026.0000   -72360.0000        1.0000        1.0000
   -45168.0000   -72479.0000        1.0000        1.0000
    54930.0000   -73510.0000        1.0000        1.0000
    48000.0000   -73569.0000        1.0000        1.0000
    34145.0000   -74775.0000        1.0000        1.0000
   -42112.0000   -75836.0000        1.0000        1.0000
   -86804.0000   -76474.0000        1.0000        1.0000
    51878.0000   -76873.0000        1.0000        1.0000
    41878.0000   -79174.0000        1.0000        1.0000
   -89164.0000   -79776.0000        1.0000        1.0000
   -51393.0000   -80213.0000        1.0000        1.0000
   -83783.0000   -80965.0000        1.0000        1.0000
   -15935.0000   -81522.0000        1.0000        1.0000
   -73017.0000   -83327.0000        1.0000        1.0000
    56563.0000   -83503.0000        1.0000        1.0000
   -93102.0000   -85277.0000        1.0000        1.0000
   -79258.0000   -88810.0000        1.0000        1.0000
   -32168.0000   -89241.0000        1.0000        1.0000
    63585.0000   -91218.0000        1.0000        1.0000
   -63854.0000   -92327.0000        1.0000        1.0000
    61279.0000   -92353.0000        1.0000        1.0000
   -73962.0000   -97772.0000        1.0000        1.0000
    67556.0000  -101183.0000        1.0000        1.0000
    67605.0000  -105630.0000        1.0000        1.0000
    66081.0000  -107871.0000        1.0000        1.0000
    63769.0000  -109008.0000        1.0000        1.0000
